function [y1] = predict(x1)
%MYNEURALNETWORKFUNCTION neural network simulation function.
%
% Auto-generated by MATLAB, 26-Aug-2019 04:01:23.
%
% [y1] = myNeuralNetworkFunction(x1) takes these arguments:
%   x = Qx15 matrix, input #1
% and returns:
%   y = Qx1 matrix, output #1
% where Q is the number of samples.

%#ok<*RPMT0>

% ===== NEURAL NETWORK CONSTANTS =====

% Input 1
x1_step1.xoffset = [-2;-2;-2;-2;-2;-2;-2;-2;-2;-2;-2;-2;-2;-2;-2];
x1_step1.gain = [0.5;0.5;0.5;0.5;0.5;0.5;0.5;0.5;0.5;0.5;0.5;0.5;0.5;0.5;0.5];
x1_step1.ymin = -1;

% Layer 1
b1 = [-2.0474305045004657089;1.6062012155185196871;-1.604903423015204833;-1.7005683566027649523;-0.061597771455297052612;0.34008910966996402925;0.25197791788608225882;-0.69407974686998319402;1.2387870180777027507;-0.068039700896893609561;0.13202522569157154608;-0.68324473510728767067;1.0795101883767581619;2.158523075769051669;-0.53954100062520227166;-2.2612867614745963962;0.33489640573351708852;2.1345893844768775161;-1.4122110043939108959;-1.5265353164794430718];
IW1_1 = [0.035324851689999235693 0.36085933510015805181 -0.929917414857260205 -0.058384902729328051751 -0.060314088681963980154 0.78507780532469251256 0.47078690822058905097 0.4244305178382440924 0.042668582385375103394 -0.00027569604459360547155 0.64660371927557280802 -0.14537985675763062665 0.16151176673969444564 0.36231188813246267832 0.45627642733906553785;-0.35807504937060141703 -0.36621851525706650143 -0.68729565657179547689 -0.27615357271596979727 -0.073291567601568741175 -0.58990281610029415837 -0.0549516479677914782 0.32027705958970098532 0.78846347210848299891 -0.24857509043216644007 0.44891211293541488647 -0.51301996529450155649 -0.68362422287739144089 -0.10598873202778356928 0.11501160318132444549;0.065079725289926532161 -0.37236182712998566746 -0.25849166732068518115 0.85141324308709820379 -0.3461999808668443368 -0.15613976960942954619 -0.54275357081075048526 -0.32139234185731974103 -0.17780412369132578276 -0.33242089391153450961 -0.74265992781387635269 0.05168004284955856481 0.40694036259200261352 0.27978618576018920994 -0.39661101426554934424;0.024491591894204120528 0.63403867558773940871 -1.1387358160986920108 0.46958106765909185532 -0.69766350888940587005 0.9198993860272831613 0.097919190119417812146 -0.019195804690712994084 0.3334712421184255482 0.30378605799477836902 0.0016155062350064657364 -0.46661862966316802748 0.14973182007859647813 0.33862497272805053283 -0.24017902555855680236;-0.92934767211610869175 -0.70983784775255132082 -0.69649196905124965973 -1.1743065884095764684 0.37559612845649131829 -0.24231737498786953822 -0.26129645464208312022 0.82858439029950592403 -0.39292458279632946905 0.15832248583703362188 -0.85153281798206803543 0.49617323479914660078 -0.33572950652644645286 0.24145121401103289416 0.11644535972992178796;1.3720031794547702386 -2.9257873501656135318 -0.44737849619077679764 0.079312720729620117543 -2.2380782421266078863 -0.17232070617799025158 -0.12207807059224526358 -0.44338215424974947165 0.27501330513917660037 -0.10705516983448644386 -0.74114829786842950643 -0.99876055895153770248 -0.95466114808336144382 0.17692456123289676539 0.29900118438587341974;-0.89250842518719386565 0.057478937472648414242 -0.19975469172862619915 0.30532975403195372621 0.039491067807519819599 -0.33237022512611807956 -0.40669304252086441176 0.74823124645930771948 0.90626465647135179271 -0.011259778025590057651 -0.42607887763324792108 -0.81560396755434660943 0.83526718539287825305 -0.068658462416890359004 0.43774400713680783337;-1.0411616708823765443 -1.6784549076631258835 -0.94269421844515066677 -0.18447232616016781548 0.14200581800167055846 0.28519049724678002811 -0.41835042712377623619 -0.57838144921395762132 0.78111597116882169889 0.18855296871080229337 -0.31207585768004320048 -0.93230997571958451609 -0.26930679270650792478 0.78443561084209256773 -0.22993811175900963351;2.1313837448154950849 0.57549327941718619872 -0.076822368764630000193 0.16190312341590606948 1.368900968019348019 -0.14023940928457875876 0.5345538114278912678 -0.44130710276400192393 0.61507661786639100665 -0.65843967652707002802 -0.82402312350626027992 -0.44870314874029049168 1.2611523587570334648 0.440007618415141466 0.94155026669691099794;-0.26510596731758806488 0.34747369363464536418 -0.28806600718154451446 -0.59525699904400231066 -0.50624178402218755757 0.49671745701341024626 -0.073605152281340138765 -0.16026927493271583836 0.39876073156297764388 -0.81081887805270957958 -0.1780749058783669958 0.48833788749746159796 0.21855866217206812441 -0.58942305754415269536 0.53201487069891661985;1.4713793218441186816 0.45526560648572378387 0.90278912519768006462 0.2455607011699745823 -0.39162615607634099213 0.076700515465104160406 0.030032410382905223856 0.31301891457378760997 0.85140850911542576007 -1.1099125540709555704 0.19933367195798121219 -0.010112637720374354627 0.42684566338431090271 0.030332003021612659321 -1.0313746278711046767;-0.59203320374406953608 -0.91161305615611154529 0.81937067021516030163 1.1322207937362955832 -0.32913489377713028849 1.0773657897387651783 1.1402735955040037563 -1.0555832706184344882 -0.034187236500094357605 0.21432994831528831559 1.2588094962378277852 1.379763676297786068 -0.67946130073570676355 0.19702324280354124864 0.71249238012730664593;1.4479075418616298432 0.299807565431846057 0.17792289328610291776 0.11754943282822695461 -0.72711066910524513318 0.25897467005446023203 -0.85316639197193477884 0.828403295279810159 -0.75426630171005004666 0.80657499015484246385 0.60964494744651032132 -0.35632742933271166486 0.44752047289159513355 -0.16151448063671700051 0.91339532186170702133;2.2459097183209726367 0.67439460074397372669 0.40362160825399512332 -0.7507449766692586568 0.59953157736719853155 1.2934625053726371835 -0.037683792716839567549 0.083741113904508557297 0.11539739362348722107 -0.50186025071217199578 -1.1830906905508384863 -0.52959068263121822362 -0.57841825583090555885 0.13863061187475961278 -0.72637271758770616259;-0.48081800271781538481 -0.97778101765490998964 0.35934816291024440638 0.44385008440777939942 1.2724311969561792335 1.0899007710184664965 0.44639489586637615126 0.97474775133104873959 0.34826876565281139619 0.55715866713904071972 0.30180246053143755525 0.16590952044200427129 0.46326978721518408122 1.2887021753154712655 0.86112568293994695701;-0.58523592822449688189 -0.15195009643163553958 0.37205806306160127406 -0.96236603497365624804 -0.33964120171792383518 -0.66084642267348903122 0.26563422539848402515 -0.32901157939824560161 0.58110696297386854603 -0.26302287203327423537 -0.99694295487934103672 0.2479838006096677927 0.33461709851556081796 -0.18367915045021576681 0.50132520918421075162;0.15452144233914702487 -0.62693431094910656576 -0.16877352141469362246 -1.0001950867352835672 0.23841114906461952083 0.24765995636553744808 -0.42151018174032373054 0.19687491321893746399 0.45587581995191961415 -1.2489704485119457189 0.36183338643892393183 0.66159592481894757832 0.65695706174960033508 -0.41795263748533306725 -1.8634530037230585542;0.63916870376559631328 0.078980557561870889938 -0.54016933852575577113 -0.39819180265422943199 -0.022887253935381053627 0.54256882390584848519 0.31461380958598950119 -0.088462288035691533095 0.16222748730378053206 -0.12229516527253214697 0.72699867568039033827 -0.13095369991722644043 0.024382615802527214666 0.028933989351253991407 0.21177808457288757604;-0.47325686146309942082 0.72750137916949320083 0.12093223430810534635 0.25632938878223526791 -0.334657092104078846 -0.92742430999582192719 -0.18697378757821456197 -0.18722961504432777957 0.41452473496349134807 0.98972419376913856048 0.68213933847630214835 -0.081837546447175738007 -0.35158195090807814465 0.50227867134137627048 0.59111809366801071342;-0.089372813891481148185 0.061897656834209759114 0.68334084759390090191 0.35939999563912805591 0.78750858959889891153 0.22866138239340241811 0.039771488016542642929 0.69782119518747731668 -0.25921990840624686836 -0.47749085335504959371 0.73388606766571806705 -1.0055937330170283683 -0.44237948398287130214 -0.019313132603979488167 0.38495665212996932336];

% Layer 2
b2 = 2.5133445149649538131;
LW2_1 = [-1.6191633031420831212 0.59609697707329922789 -1.0423402653189783873 -1.9241685668592456437 -1.1165626392397614008 3.9566963534161709859 -0.96513977757501789867 -2.1393405216781449241 3.1933360079127806053 0.24343087108370242699 1.6182520435380662871 -2.8618361520712412016 2.1153381746920456585 3.7482856245304452258 -2.6419006533793703007 -2.6893525128191506646 -2.121965103675485409 2.3348517839055400458 0.9008638626226517232 -0.99645996426149696656];

% ===== SIMULATION ========

% Dimensions
Q = size(x1,1); % samples

% Input 1
x1 = x1';
xp1 = mapminmax_apply(x1,x1_step1);

% Layer 1
a1 = tansig_apply(repmat(b1,1,Q) + IW1_1*xp1);

% Layer 2
a2 = logsig_apply(repmat(b2,1,Q) + LW2_1*a1);

% Output 1
y1 = a2;
y1 = y1';
end

% ===== MODULE FUNCTIONS ========

% Map Minimum and Maximum Input Processing Function
function y = mapminmax_apply(x,settings)
y = bsxfun(@minus,x,settings.xoffset);
y = bsxfun(@times,y,settings.gain);
y = bsxfun(@plus,y,settings.ymin);
end

% Sigmoid Positive Transfer Function
function a = logsig_apply(n,~)
a = 1 ./ (1 + exp(-n));
end

% Sigmoid Symmetric Transfer Function
function a = tansig_apply(n,~)
a = 2 ./ (1 + exp(-2*n)) - 1;
end
